digraph Tree {
node [shape=box, style="filled", color="black"] ;
0 [label="PinsEditAjaxRB <= 0.5\ngini = 0.02\nsamples = 707237\nvalue = [699964, 7273]", fillcolor="#e58139fc"] ;
1 [label="NotificationsLayerContent <= 0.5\ngini = 0.019\nsamples = 706848\nvalue = [699926, 6922]", fillcolor="#e58139fc"] ;
0 -> 1 [labeldistance=2.5, labelangle=45, headlabel="True"] ;
2 [label="userStatuses <= 0.5\ngini = 0.018\nsamples = 706219\nvalue = [699653, 6566]", fillcolor="#e58139fd"] ;
1 -> 2 ;
3 [label="DetailedUserGroupsListBlock <= 0.5\ngini = 0.018\nsamples = 705967\nvalue = [699581, 6386]", fillcolor="#e58139fd"] ;
2 -> 3 ;
4 [label="userConfig <= 0.5\ngini = 0.018\nsamples = 705785\nvalue = [699550, 6235]", fillcolor="#e58139fd"] ;
3 -> 4 ;
5 [label="userPersonalPhotos <= 0.5\ngini = 0.017\nsamples = 705532\nvalue = [699471, 6061]", fillcolor="#e58139fd"] ;
4 -> 5 ;
6 [label="altGroupMain <= 0.5\ngini = 0.017\nsamples = 705304\nvalue = [699408, 5896]", fillcolor="#e58139fd"] ;
5 -> 6 ;
7 [label="LinkLoader <= 0.5\ngini = 0.016\nsamples = 704379\nvalue = [698748, 5631]", fillcolor="#e58139fd"] ;
6 -> 7 ;
8 [label="GroupJoinDropdownBlock <= 0.5\ngini = 0.016\nsamples = 704254\nvalue = [698718, 5536]", fillcolor="#e58139fd"] ;
7 -> 8 ;
9 [label="MediaTopicPost <= 0.5\ngini = 0.015\nsamples = 704158\nvalue = [698690, 5468]", fillcolor="#e58139fd"] ;
8 -> 9 ;
10 [label="gini = 0.015\nsamples = 703850\nvalue = [698504, 5346]", fillcolor="#e58139fd"] ;
9 -> 10 ;
11 [label="gini = 0.478\nsamples = 308\nvalue = [186, 122]", fillcolor="#e5813958"] ;
9 -> 11 ;
12 [label="gini = 0.413\nsamples = 96\nvalue = [28, 68]", fillcolor="#399de596"] ;
8 -> 12 ;
13 [label="gini = 0.365\nsamples = 125\nvalue = [30, 95]", fillcolor="#399de5ae"] ;
7 -> 13 ;
14 [label="gini = 0.409\nsamples = 925\nvalue = [660, 265]", fillcolor="#e5813999"] ;
6 -> 14 ;
15 [label="gini = 0.4\nsamples = 228\nvalue = [63, 165]", fillcolor="#399de59e"] ;
5 -> 15 ;
16 [label="gini = 0.43\nsamples = 253\nvalue = [79, 174]", fillcolor="#399de58b"] ;
4 -> 16 ;
17 [label="gini = 0.283\nsamples = 182\nvalue = [31, 151]", fillcolor="#399de5cb"] ;
3 -> 17 ;
18 [label="gini = 0.408\nsamples = 252\nvalue = [72, 180]", fillcolor="#399de599"] ;
2 -> 18 ;
19 [label="gini = 0.491\nsamples = 629\nvalue = [273, 356]", fillcolor="#399de53b"] ;
1 -> 19 ;
20 [label="gini = 0.176\nsamples = 389\nvalue = [38, 351]", fillcolor="#399de5e3"] ;
0 -> 20 [labeldistance=2.5, labelangle=-45, headlabel="False"] ;
}